<?xml version="1.0"?>
<opencv_storage>
<stage1>
  <maxWeakCount>11</maxWeakCount>
  <stageThreshold>-1.1019580364227295e+00</stageThreshold>
  <weakClassifiers>
    <_>
      <internalNodes>
        0 -1 58015 1.4767171815037727e-02</internalNodes>
      <leafValues>
        -3.9880952239036560e-01 7.1797323226928711e-01</leafValues></_>
    <_>
      <internalNodes>
        0 -1 53076 3.5396389663219452e-02</internalNodes>
      <leafValues>
        -3.6374452710151672e-01 5.4557579755783081e-01</leafValues></_>
    <_>
      <internalNodes>
        0 -1 34171 -8.9056696742773056e-03</internalNodes>
      <leafValues>
        5.3208655118942261e-01 -3.5642808675765991e-01</leafValues></_>
    <_>
      <internalNodes>
        0 -1 47824 1.0717690922319889e-02</internalNodes>
      <leafValues>
        2.3000060021877289e-01 -7.5169670581817627e-01</leafValues></_>
    <_>
      <internalNodes>
        0 -1 57173 -2.0909528248012066e-03</internalNodes>
      <leafValues>
        -7.1378642320632935e-01 1.5753430128097534e-01</leafValues></_>
    <_>
      <internalNodes>
        0 -1 57163 3.1464346684515476e-03</internalNodes>
      <leafValues>
        1.9547371566295624e-01 -8.3308482170104980e-01</leafValues></_>
    <_>
      <internalNodes>
        0 -1 54562 2.3508278536610305e-04</internalNodes>
      <leafValues>
        2.0538753271102905e-01 -5.1614469289779663e-01</leafValues></_>
    <_>
      <internalNodes>
        0 -1 52484 -2.5971964001655579e-02</internalNodes>
      <leafValues>
        -7.5697684288024902e-01 8.6221545934677124e-02</leafValues></_>
    <_>
      <internalNodes>
        0 -1 46810 -2.7129711583256721e-02</internalNodes>
      <leafValues>
        -7.6980239152908325e-01 1.1999568343162537e-01</leafValues></_>
    <_>
      <internalNodes>
        0 -1 4965 4.7235257923603058e-02</internalNodes>
      <leafValues>
        -2.4379581212997437e-01 4.3320998549461365e-01</leafValues></_>
    <_>
      <internalNodes>
        0 -1 60821 8.6718508973717690e-03</internalNodes>
      <leafValues>
        1.3752728700637817e-01 -7.2090482711791992e-01</leafValues></_></weakClassifiers></stage1>
</opencv_storage>
