<?xml version="1.0"?>
<opencv_storage>
<stage1>
  <maxWeakCount>7</maxWeakCount>
  <stageThreshold>-1.6896640062332153e+00</stageThreshold>
  <weakClassifiers>
    <_>
      <internalNodes>
        0 -1 36146 1.4248289167881012e-01</internalNodes>
      <leafValues>
        -8.0842280387878418e-01 8.1269985437393188e-01</leafValues></_>
    <_>
      <internalNodes>
        0 -1 67722 -2.6736669242382050e-02</internalNodes>
      <leafValues>
        6.3085716962814331e-01 -6.1741214990615845e-01</leafValues></_>
    <_>
      <internalNodes>
        0 -1 48704 -3.6308910697698593e-02</internalNodes>
      <leafValues>
        3.7708348035812378e-01 -7.2290557622909546e-01</leafValues></_>
    <_>
      <internalNodes>
        0 -1 42622 -3.5210467875003815e-02</internalNodes>
      <leafValues>
        5.9468984603881836e-01 -4.4614097476005554e-01</leafValues></_>
    <_>
      <internalNodes>
        0 -1 19669 1.9838284701108932e-02</internalNodes>
      <leafValues>
        -1.5856771171092987e-01 7.6650857925415039e-01</leafValues></_>
    <_>
      <internalNodes>
        0 -1 52406 -3.8281936198472977e-02</internalNodes>
      <leafValues>
        6.3996195793151855e-01 -2.9737895727157593e-01</leafValues></_>
    <_>
      <internalNodes>
        0 -1 59501 9.2106591910123825e-03</internalNodes>
      <leafValues>
        -3.9311209321022034e-01 4.2382326722145081e-01</leafValues></_></weakClassifiers></stage1>
</opencv_storage>
