<?xml version="1.0"?>
<opencv_storage>
<stage4>
  <maxWeakCount>12</maxWeakCount>
  <stageThreshold>-1.2771860361099243e+00</stageThreshold>
  <weakClassifiers>
    <_>
      <internalNodes>
        0 -1 18850 2.3477772250771523e-02</internalNodes>
      <leafValues>
        -4.9099451303482056e-01 6.7216205596923828e-01</leafValues></_>
    <_>
      <internalNodes>
        0 -1 56488 7.7366217970848083e-02</internalNodes>
      <leafValues>
        -4.7663798928260803e-01 5.0906586647033691e-01</leafValues></_>
    <_>
      <internalNodes>
        0 -1 44020 -2.8683997690677643e-02</internalNodes>
      <leafValues>
        2.2853562235832214e-01 -8.6493641138076782e-01</leafValues></_>
    <_>
      <internalNodes>
        0 -1 36128 3.1909115612506866e-02</internalNodes>
      <leafValues>
        -5.2467519044876099e-01 2.6016634702682495e-01</leafValues></_>
    <_>
      <internalNodes>
        0 -1 43291 -2.4318503215909004e-02</internalNodes>
      <leafValues>
        3.4709808230400085e-01 -4.4016203284263611e-01</leafValues></_>
    <_>
      <internalNodes>
        0 -1 44629 -2.2563453763723373e-02</internalNodes>
      <leafValues>
        3.2369151711463928e-01 -3.9074912667274475e-01</leafValues></_>
    <_>
      <internalNodes>
        0 -1 42908 -3.1738877296447754e-03</internalNodes>
      <leafValues>
        4.8941388726234436e-01 -2.3856051266193390e-01</leafValues></_>
    <_>
      <internalNodes>
        0 -1 52708 -1.8768955022096634e-02</internalNodes>
      <leafValues>
        4.9886268377304077e-01 -2.9740232229232788e-01</leafValues></_>
    <_>
      <internalNodes>
        0 -1 67118 -1.5999544411897659e-02</internalNodes>
      <leafValues>
        2.7286338806152344e-01 -5.5026572942733765e-01</leafValues></_>
    <_>
      <internalNodes>
        0 -1 38665 -7.4252551421523094e-03</internalNodes>
      <leafValues>
        1.9275274872779846e-01 -6.4716076850891113e-01</leafValues></_>
    <_>
      <internalNodes>
        0 -1 30998 -2.6820888742804527e-02</internalNodes>
      <leafValues>
        -6.9817948341369629e-01 1.2647195160388947e-01</leafValues></_>
    <_>
      <internalNodes>
        0 -1 32172 6.4459636807441711e-02</internalNodes>
      <leafValues>
        1.1118670552968979e-01 -9.2979943752288818e-01</leafValues></_></weakClassifiers></stage4>
</opencv_storage>
