<?xml version="1.0"?>
<opencv_storage>
<stage3>
  <maxWeakCount>11</maxWeakCount>
  <stageThreshold>-1.4164390563964844e+00</stageThreshold>
  <weakClassifiers>
    <_>
      <internalNodes>
        0 -1 29672 2.1696585416793823e-01</internalNodes>
      <leafValues>
        -4.6705710887908936e-01 7.0698130130767822e-01</leafValues></_>
    <_>
      <internalNodes>
        0 -1 43586 -1.1011443100869656e-02</internalNodes>
      <leafValues>
        5.1203101873397827e-01 -5.8110058307647705e-01</leafValues></_>
    <_>
      <internalNodes>
        0 -1 44449 -1.0289745405316353e-02</internalNodes>
      <leafValues>
        2.6610991358757019e-01 -7.7268630266189575e-01</leafValues></_>
    <_>
      <internalNodes>
        0 -1 70210 -1.6540233045816422e-02</internalNodes>
      <leafValues>
        3.2236045598983765e-01 -6.2817460298538208e-01</leafValues></_>
    <_>
      <internalNodes>
        0 -1 18850 2.1441508084535599e-02</internalNodes>
      <leafValues>
        -3.9242896437644958e-01 3.9901086688041687e-01</leafValues></_>
    <_>
      <internalNodes>
        0 -1 47175 1.3410317711532116e-02</internalNodes>
      <leafValues>
        -8.1777900457382202e-01 1.7978760600090027e-01</leafValues></_>
    <_>
      <internalNodes>
        0 -1 53487 -1.1750638484954834e-02</internalNodes>
      <leafValues>
        5.0034123659133911e-01 -3.3556079864501953e-01</leafValues></_>
    <_>
      <internalNodes>
        0 -1 64937 -4.1422341018915176e-03</internalNodes>
      <leafValues>
        4.6413451433181763e-01 -2.8438225388526917e-01</leafValues></_>
    <_>
      <internalNodes>
        0 -1 30059 -3.2212056219577789e-02</internalNodes>
      <leafValues>
        -6.2300908565521240e-01 1.8510836362838745e-01</leafValues></_>
    <_>
      <internalNodes>
        0 -1 42700 6.2768764793872833e-02</internalNodes>
      <leafValues>
        -1.6850955784320831e-01 7.3988449573516846e-01</leafValues></_>
    <_>
      <internalNodes>
        0 -1 47706 -4.6200178563594818e-02</internalNodes>
      <leafValues>
        7.7936649322509766e-01 -1.4076615869998932e-01</leafValues></_></weakClassifiers></stage3>
</opencv_storage>
