<?xml version="1.0"?>
<opencv_storage>
<stage17>
  <maxWeakCount>20</maxWeakCount>
  <stageThreshold>-8.7502342462539673e-01</stageThreshold>
  <weakClassifiers>
    <_>
      <internalNodes>
        0 -1 25397 7.7620819211006165e-03</internalNodes>
      <leafValues>
        -2.8191000223159790e-01 4.7901341319084167e-01</leafValues></_>
    <_>
      <internalNodes>
        0 -1 53732 -7.2700465098023415e-03</internalNodes>
      <leafValues>
        -4.8628070950508118e-01 2.0540073513984680e-01</leafValues></_>
    <_>
      <internalNodes>
        0 -1 30542 -1.4459369704127312e-02</internalNodes>
      <leafValues>
        -7.1965575218200684e-01 1.5863350033760071e-01</leafValues></_>
    <_>
      <internalNodes>
        0 -1 72684 -3.3465516753494740e-04</internalNodes>
      <leafValues>
        4.7469235956668854e-02 -7.3458737134933472e-01</leafValues></_>
    <_>
      <internalNodes>
        0 -1 76119 -1.5799848188180476e-04</internalNodes>
      <leafValues>
        1.6111455857753754e-01 -4.1823658347129822e-01</leafValues></_>
    <_>
      <internalNodes>
        0 -1 51736 4.4973925687372684e-03</internalNodes>
      <leafValues>
        1.1391896754503250e-01 -6.4035439491271973e-01</leafValues></_>
    <_>
      <internalNodes>
        0 -1 53704 -7.3295570909976959e-03</internalNodes>
      <leafValues>
        2.4548193812370300e-01 -2.6453414559364319e-01</leafValues></_>
    <_>
      <internalNodes>
        0 -1 56372 -5.7931477203965187e-04</internalNodes>
      <leafValues>
        -6.4817857742309570e-01 1.1573056876659393e-01</leafValues></_>
    <_>
      <internalNodes>
        0 -1 32004 -3.0984436161816120e-03</internalNodes>
      <leafValues>
        3.7023058533668518e-01 -1.9402551651000977e-01</leafValues></_>
    <_>
      <internalNodes>
        0 -1 56044 -2.9703596374019980e-04</internalNodes>
      <leafValues>
        -5.6649053096771240e-01 1.1236108839511871e-01</leafValues></_>
    <_>
      <internalNodes>
        0 -1 61320 -1.8984165508300066e-03</internalNodes>
      <leafValues>
        3.4345033764839172e-01 -2.1078705787658691e-01</leafValues></_>
    <_>
      <internalNodes>
        0 -1 61320 5.6372457183897495e-03</internalNodes>
      <leafValues>
        -1.6555120050907135e-01 4.1977378726005554e-01</leafValues></_>
    <_>
      <internalNodes>
        0 -1 32668 8.8287293910980225e-03</internalNodes>
      <leafValues>
        -9.1051682829856873e-02 6.0419082641601562e-01</leafValues></_>
    <_>
      <internalNodes>
        0 -1 70804 1.4435232151299715e-03</internalNodes>
      <leafValues>
        1.1807752400636673e-01 -6.6526991128921509e-01</leafValues></_>
    <_>
      <internalNodes>
        0 -1 42619 -8.3301171660423279e-02</internalNodes>
      <leafValues>
        -7.1869319677352905e-01 6.9380588829517365e-02</leafValues></_>
    <_>
      <internalNodes>
        0 -1 37849 -1.2789185158908367e-02</internalNodes>
      <leafValues>
        2.5163787603378296e-01 -2.7520173788070679e-01</leafValues></_>
    <_>
      <internalNodes>
        0 -1 77250 1.8568972591310740e-03</internalNodes>
      <leafValues>
        -1.8917791545391083e-01 3.6870822310447693e-01</leafValues></_>
    <_>
      <internalNodes>
        0 -1 26210 1.8366545438766479e-02</internalNodes>
      <leafValues>
        -1.1853667348623276e-01 4.3425604701042175e-01</leafValues></_>
    <_>
      <internalNodes>
        0 -1 64778 -1.8755979835987091e-02</internalNodes>
      <leafValues>
        4.2071527242660522e-01 -1.3270954787731171e-01</leafValues></_>
    <_>
      <internalNodes>
        0 -1 70266 1.8302693963050842e-02</internalNodes>
      <leafValues>
        -2.0301496982574463e-01 3.2952129840850830e-01</leafValues></_></weakClassifiers></stage17>
</opencv_storage>
