<?xml version="1.0"?>
<opencv_storage>
<stage8>
  <maxWeakCount>14</maxWeakCount>
  <stageThreshold>-1.0955995321273804e+00</stageThreshold>
  <weakClassifiers>
    <_>
      <internalNodes>
        0 -1 43277 -1.2156849727034569e-02</internalNodes>
      <leafValues>
        5.3127604722976685e-01 -4.7305390238761902e-01</leafValues></_>
    <_>
      <internalNodes>
        0 -1 32536 -4.1444391012191772e-02</internalNodes>
      <leafValues>
        2.5374099612236023e-01 -5.8879369497299194e-01</leafValues></_>
    <_>
      <internalNodes>
        0 -1 72240 -1.5636424068361521e-03</internalNodes>
      <leafValues>
        1.9501431286334991e-01 -7.2167348861694336e-01</leafValues></_>
    <_>
      <internalNodes>
        0 -1 19669 2.8901245445013046e-02</internalNodes>
      <leafValues>
        -2.4910800158977509e-01 5.6017065048217773e-01</leafValues></_>
    <_>
      <internalNodes>
        0 -1 53487 -1.2344723567366600e-02</internalNodes>
      <leafValues>
        3.9580869674682617e-01 -2.5131511688232422e-01</leafValues></_>
    <_>
      <internalNodes>
        0 -1 42908 -4.0828045457601547e-03</internalNodes>
      <leafValues>
        4.7053065896034241e-01 -2.2880247235298157e-01</leafValues></_>
    <_>
      <internalNodes>
        0 -1 54345 -3.3670603297650814e-03</internalNodes>
      <leafValues>
        -6.4652204513549805e-01 1.7688791453838348e-01</leafValues></_>
    <_>
      <internalNodes>
        0 -1 53674 -2.2825845517218113e-03</internalNodes>
      <leafValues>
        -4.5780563354492188e-01 1.7056722939014435e-01</leafValues></_>
    <_>
      <internalNodes>
        0 -1 50925 1.9607155118137598e-03</internalNodes>
      <leafValues>
        -7.0206683874130249e-01 1.5061514079570770e-01</leafValues></_>
    <_>
      <internalNodes>
        0 -1 47213 9.9937379360198975e-02</internalNodes>
      <leafValues>
        1.1432409286499023e-01 -7.9275852441787720e-01</leafValues></_>
    <_>
      <internalNodes>
        0 -1 76125 -4.3517109588719904e-05</internalNodes>
      <leafValues>
        2.1145190298557281e-01 -4.0318936109542847e-01</leafValues></_>
    <_>
      <internalNodes>
        0 -1 76278 -1.0473446454852819e-03</internalNodes>
      <leafValues>
        -7.2058373689651489e-01 1.2422242760658264e-01</leafValues></_>
    <_>
      <internalNodes>
        0 -1 36256 7.5956648215651512e-03</internalNodes>
      <leafValues>
        -2.4971938133239746e-01 3.5549584031105042e-01</leafValues></_>
    <_>
      <internalNodes>
        0 -1 24803 1.1707220226526260e-01</internalNodes>
      <leafValues>
        1.0016858577728271e-01 -8.0174046754837036e-01</leafValues></_></weakClassifiers></stage8>
</opencv_storage>
